{"model_layers":[4,9,6,3],"model_weights":[[[[-1.844131032722438,-1.8987492958472778,2.8094958562959746,3.0199262317029762],[2.8933656601624516,1.932040150159299,-0.3254843733063333,-1.245962895243744],[2.874991582345869,1.8682206723758246,-0.2880235039939554,-1.183562612602442],[-1.5161433684781769,-1.6736543795428154,2.453807175219982,2.3574940188315674],[-1.6578027434180633,-1.6922696022227302,2.5515727233333276,2.6206658989988796],[1.9123273884400849,1.3108282279108594,-0.7977570236111378,-1.2922092548632362],[-0.6079847257998126,-1.5266386669031122,2.7003527339746416,1.7015082648807927],[-1.5089540779615214,-1.7149704449781564,1.190807872916324,0.9930119178267547],[1.6152344961868779,1.236451062934153,-0.9562859333380627,-1.3096423110585422]],[[2.209269405682184,-1.1597358042121295,-1.1650808092040554,2.0311743330555156,1.778209826642002,-1.0600448482619458,1.1561808507743438,0.8376944103882478,-1.0027976307612858],[-3.493624882734247,1.698133416439505,1.6835977917815184,-2.5806499205377906,-2.694412626020119,1.4601683269267973,-1.3925839441269419,-1.0696564842696281,1.4709467079871081],[-3.7367690196579844,0.867356745060053,0.7699836679866883,-2.9426571742521244,-2.1759347970915837,0.7394725831213809,-4.737492972743572,-1.7351118811307384,0.7713660608320716],[4.486472592837822,1.5929871429081528,1.715645893707026,2.8259930123270225,1.808903504922004,1.914071090677646,1.5346346212758404,1.8539168828135404,1.8109880411226194],[-0.8120880222160856,1.8675933395246898,1.8241418736493524,-0.4811287404999227,-0.6413794887191553,1.638837784927159,-0.6330949090227649,-0.8562824836185949,1.6557814847619599],[-1.9015351238842626,0.6045791131288907,0.600168469064682,-1.8932976556761647,-1.8078378716228616,0.5601188558331869,-3.1554705286154334,-0.8963758138446618,0.4532767390655148]],[[-3.3336108743455677,1.6839640678028036,5.468721203297331,-5.431127579674163,1.3299349945959362,3.7540205523045453],[-3.3402320405622965,5.002430606441937,-7.143423012215848,2.0193902202733405,0.7541765374114875,-1.8318524254957975],[3.5203931881016923,-5.466037861733265,-2.8596990178038837,3.087648901447767,-2.783825497309558,-2.4951948303096727]]],[[[-1.5210622042556576],[0.9444171164768589],[0.9317899294181142],[-1.157061968211498],[-1.268714721559816],[0.7314479909222016],[-0.45510212422952834],[-0.49551009555323655],[0.6797370894007226]],[[-0.27973946076370604],[0.37559336674444777],[-0.4573756309743382],[3.136864178848175],[0.6727352869213832],[-0.42944338339276356]],[[-1.7138440124789267],[-3.522529245337383],[0.5096098160764506]]]]}