{"model_layers":[4,9,6,3],"model_func":["linear","sigma","sigma","sigma"],"model_weights":[[[[0.6675273681120508,0.7860171596726341,-1.1374748812429818,-1.666893015692452],[1.2760007975996408,1.299765512756626,-1.9091794581938175,-2.892754145276205],[1.2418653789837395,1.2658630605348484,-1.8385463286738033,-2.9248277209861766],[-0.34886007633209526,-1.0477908808123757,1.313202622977202,0.9211403895786442],[-0.7371737196229986,-0.9370715600108055,1.240386381238592,2.022549309891547],[0.4308568350333106,0.6163658076128419,-0.8913920608733399,-1.1070950709047203],[-0.2594458011655545,-0.9092227139394118,1.1795434478622566,0.7797341549939838],[1.0972674973804069,1.1781350548361604,-1.6894786185136053,-2.5738180262191537],[-0.2771181552160365,-1.1555229425396927,1.5241842144885243,0.9491958716231246]],[[1.1543981191202506,1.9265076769901808,1.8975378750593945,-0.7295115640013085,-1.4016053978898344,0.8108199271839256,-0.4791129137298944,1.7086556292476063,-0.7127141187373826],[-0.7021203128859186,-0.9101843478304974,-0.9456144870499607,2.2784112997691794,1.7759559323586243,-0.6483629524317847,1.7017652079334944,-0.9187369302076587,2.5079711346263505],[-1.029144869323908,-1.7991521979530143,-1.7462751601343893,0.7009767312423446,1.354467355291182,-0.7731372397874733,0.3404718891324534,-1.5883009895180842,0.7836214306884737],[1.7119373516222636,2.8086718042009977,2.7869393156992635,-0.9436353996041604,-1.9598040693102627,1.228382560709051,-0.5407578862247147,2.5084280051327195,-0.8393395886188827],[1.1268987363381409,1.8117093138711733,1.842662438340876,-0.7174147683524127,-1.3904975492506726,0.8422109010558325,-0.48177893567396435,1.6750618301192648,-0.6832215888706751],[0.7907399501725759,1.0083021929139002,1.0058198898591997,-2.5882949369504207,-2.000480656403489,0.849799640422143,-1.9553872996978876,0.9425616500215254,-2.768643811223381]],[[0.8495728080484264,-5.618361094176954,-3.6436615510027974,1.1733485854542087,0.7479514170684777,4.115812517652624],[1.6351673623960514,2.522619999587942,-3.1840416392594433,3.731991250604405,1.5382105647820092,-6.802781050711858],[-3.0503745498605577,2.812897012602557,3.393704939289316,-3.9107040652390768,-2.9182185892578323,-2.76313103392253]]],[[[0.7890081944478529],[1.5004288013776013],[1.4837052474821122],[-0.2216867482755523],[-0.9139765268441475],[0.5165999486042331],[-0.1884068216472597],[1.3110752167625628],[-0.18895565745591286]],[[0.1654036982497253],[0.6337737632176391],[-0.1521083936976844],[0.293015723672166],[0.16430473825824604],[-0.6351242122700484]],[[-1.8147171091505343],[-4.735952696819303],[0.5851865010353958]]]]}