{"model_layers":[4,9,6,3],"model_weights":[[[[0.6839494704354235,2.599682787128877,-1.9962511539914662,-1.894127282574149],[-0.925168429723458,-2.69324980624888,2.4448166405554503,2.222447071655911],[-0.2255613653829791,1.429519115245662,-1.4228107094706641,0.2384249494566048],[0.15678018008133116,0.7437414179993305,-0.8725815027231963,-0.6969165031281167],[2.2398031787349817,0.37163753782941994,-2.861441839185828,-2.2831775867610635],[1.2718795980226918,0.24209451741536533,-0.9920833603502028,-3.3219383395854827],[0.15021284951710032,1.563497254102862,-2.450566641347862,0.07298744008202887],[-0.40927398026096207,-1.2142541857707887,2.057559592140623,0.4064354933297292],[-0.030992120705937605,-1.191828329704178,-0.3618221809043289,-0.42678678666142444]],[[-0.5809218475685108,1.8569190660034351,1.0929626065521312,1.5435935023984761,-1.5569754685053816,-1.393968109751444,2.3031749472583347,-2.259249016722849,-0.2163645294079176],[0.5362136079144414,-0.7072725210041549,1.5176232204443507,1.8307047375241483,2.080011976966177,0.48922984428822036,0.38515100232527055,-2.162516665346623,-0.12389824339661826],[1.1774499135579264,-0.4417721278081645,1.2633322292982094,1.268271917071164,0.021954262372558493,-0.6025537826857946,0.7727855871850796,-2.4901343109664316,0.14290983213820163],[-2.5845669877207973,1.6859525155322919,0.9773832942418804,-1.933377008178095,-3.0954426832175566,-1.3423690850594467,-0.17764978597876288,1.7552106600078805,-0.3756551034522599],[-1.5749977792086767,0.08283657185614808,-1.391526794595253,-0.12741936581335062,-0.2880681486533986,0.6946187957445383,-2.5123428318616146,4.266441093902783,-0.5267833282521858],[2.5815721339384234,-2.3648625971452852,0.7031157709575393,2.627401429741098,2.947745645767286,2.697761310974871,0.7118387589853266,-0.5280975643933676,-0.531690602475864]],[[2.4732207875861136,2.2139835521141253,2.7558261559612895,-3.5343582611761932,-5.986089210121911,-0.9096911234176528],[-5.878002134736647,0.7564936751291063,-2.7260740181956336,-2.632933125917787,3.6081278747448247,4.103248003824877],[1.0200813458040272,-3.981170274547038,-2.088891891639277,4.429387684598527,1.2668728691772055,-4.711003827441727]]],[[[0.10157179478169372],[-1.168934216624769],[-0.33757196020333635],[1.1384086338170862],[1.9152642323218798],[1.3983452717085676],[0.8050384874833033],[-0.5164039079062058],[0.4673813006822602]],[[1.1536688649844715],[0.44236775359959357],[-0.985910859907442],[-0.6780585139861787],[0.568280329789801],[-0.9994875874360626]],[[-1.0696016961310197],[-2.3863616115816106],[-0.201860124766226]]]]}