{"model_layers":[4,9,6,3],"model_func":["linear","sigma","sigma","sigma"],"model_weights":[[[[-0.34817318987811846,-1.3910237452833067,2.142657263895305,1.1638686862290777],[-0.17503936156729163,-0.8978044129731121,0.6322607077321573,1.7894429684587663],[-0.11613265365190176,-0.8501139158142784,0.5357197745324566,1.803614715005399],[0.06991042830296164,-1.4822049005819307,0.47062042337369836,3.606205566585668],[0.8920597350562887,2.1309695022201445,-1.882650127234712,-4.739347622069377],[1.4979127188378352,2.482047175312062,-2.715885631072903,-5.317479294846294],[-0.22165943656051046,1.0198636542193928,-0.1758791322893005,-2.92083812482933],[1.496208353026897,2.510604894961341,-2.7237183180370095,-5.364490632990046],[-0.3479397757039873,0.9175850947431456,0.011288000418751847,-2.7124473883668268]],[[0.005247959789578652,-0.7414663754525233,-0.7144915173870235,-1.5379527686095882,2.2554699391321087,2.5439584254261174,1.5298642034542451,2.498763212898534,1.4339872522804098],[-0.03403736762808908,-0.9379300362042006,-0.8950388264152846,-1.908146380226135,2.9820019621352123,3.2829727856628725,1.913609738646691,3.3687613498469964,1.7721930056851072],[1.4764876922608026,1.2210812882511872,0.8634338405864193,1.1369906397418958,-0.5922799766110162,-0.6776228269330404,-0.36739258706711697,-0.7072231645368691,-0.30968992007402846],[2.7506100546554184,2.352724046849126,1.9779462863153299,1.7526215943500312,-0.797061983136436,-0.7962469572244154,-0.869222014425562,-0.8871428715242088,-0.8018374836340277],[-0.04671077942593273,0.8873518015070686,0.8378399154395626,1.8987931683033918,-2.828544519692217,-3.1876593432692935,-1.8902267526652743,-3.2029923734968317,-1.7433103683533238],[-3.5255276293659654,-2.892643619157649,-2.448288350122166,-2.3795929101202757,1.083789217048513,1.0736694884807267,1.0108665504468766,1.1025233487297683,0.9503629912322007]],[[0.9170315458734863,1.3722319209520843,-4.222202208632622,-5.710509850699807,-2.3994450965732774,6.197448291793402],[2.546990013616242,4.561229034982191,-0.1712973361752909,3.6586537363342755,-6.79394947519141,-10.030439267454442],[-4.69417532444265,-5.8623945500241454,2.591573419905296,1.8264244967980712,4.357331666499646,-3.045763473153538]]],[[[-0.158020370296026],[-0.5839564228830848],[-0.7366629427472734],[-2.60428717762708],[3.5163212075513757],[3.8585684369911832],[2.1005416235510594],[3.9025655756694144],[1.9358551326515991]],[[0.7877691235077476],[1.108060202191262],[0.20126172241947693],[0.38491199735167986],[-1.0361829650599426],[-0.5647771281084676]],[[-0.6693512770857862],[-3.8785409623819596],[-1.1962290581434982]]]]}