{"model_layers":[4,9,6,3],"model_func":["linear","sigma","sigma","sigma"],"model_weights":[[[[-0.326343512387922,-1.075296542676439,1.6403337817918549,0.9305574797087928],[1.138196502179956,0.9107166516056754,-1.5227863808704065,-2.6030132584143764],[1.1331259995514025,0.9139937174309543,-1.5092203069692973,-2.631789919312927],[1.4276121957509047,1.0458605767174685,-1.834120603158379,-3.1570637167080413],[-0.35028247424824116,-0.8893115415689544,1.387555907042411,0.8356045303330769],[-0.13818764686261906,-0.48240239831028975,0.6765301329950915,0.39621073597264],[-0.42499344158493535,-0.8301558868270678,1.194054733157258,0.8806140280743094],[-0.6872673037927937,-0.8410898029283603,1.1145440343771196,1.8377874530009126],[1.1550855494359322,0.8707609423283962,-1.5365009164763346,-2.5520727687678546]],[[-0.82199803731734,2.0380513687377215,2.117011937881882,2.5168972490464956,-0.6388179975079266,-0.14559682771239998,-0.7295917496890246,-1.557900797378238,2.0745246718144092],[0.5080759703199653,-1.683118903330562,-1.6850933370079797,-2.0896740676093204,0.4647313273877632,0.08593796011188898,0.5865401453317546,1.2671831559751032,-1.6906826450392232],[2.4687238252001715,-1.0525070709234798,-1.1147967569407862,-1.2230405609932085,2.050700755232726,0.8060424749655998,1.9264806278973918,2.0794873799721287,-1.057246958982743],[0.5617301177917253,-1.8272485734484765,-1.797517261061032,-2.1779474240031185,0.4917667724569849,0.13865442337460576,0.5922003606933595,1.367521591333215,-1.769961468123156],[-2.4286283290559205,1.0835751181632105,1.026015760996668,1.173694663152207,-1.905093957498402,-0.7773129969703925,-1.8211766799216242,-2.0376791080174774,1.021775846514729],[0.5051734710807346,-1.5123297199672663,-1.4599663305579456,-1.773793562058859,0.39986011884284506,0.060490008662879104,0.4798106936717265,1.1181564323096898,-1.4146481888108522]],[[1.4237231259891265,-1.80624655089301,-5.4443871454677275,-2.1446280559253608,4.363278597589718,-2.150512937596274],[2.4907232537305917,-3.0859420097061663,4.667246616227225,-3.1941444972062545,-5.471234797530877,-2.3050667524294055],[-5.1555018738389045,2.25336645237825,1.076864506584759,2.664046654003812,-3.3080754603671148,2.1429357870288603]]],[[[-0.13595985803490523],[0.8943094158251121],[0.8965492890031936],[1.0961468752344121],[-0.14541463940360164],[-0.08299756688309505],[-0.1749908586373643],[-0.4901354722633319],[0.8840980842762302]],[[0.361500604687832],[-0.2504898105060206],[0.4289852665820022],[-0.26668628116209453],[-0.37879292203840564],[-0.26282747173992604]],[[-0.6514141528934195],[-1.8761345021138025],[-2.038010353525668]]]]}