{"model_layers":[4,9,6,3],"model_func":["linear","sigma","sigma","sigma"],"model_weights":[[[[-0.30000800450762755,-1.2296691745453234,1.930560921106469,1.0480927979880665],[-0.37125137212127046,-0.9572347863452619,1.1426033706093204,1.1077029304536936],[-0.3617505036303365,-0.8677179384007564,1.0148489620168661,1.0860774292219981],[-0.8067069510664504,-1.0493187333754173,1.266671037166804,2.627394021201428],[1.2187420441706451,1.272922120387769,-1.7978192643319733,-3.2445621187692684],[1.4011693489343573,1.4320191793633994,-2.046344551537995,-3.5874989988111206],[0.5968787301851759,0.6858605224410415,-0.9961572597492133,-1.8501916023908127],[1.4036734902822392,1.4462564439878764,-2.0441524126458557,-3.643231306789993],[0.46578780433831746,0.6456929656968028,-0.8519947542167801,-1.649237769621553]],[[-0.29553568892221443,-0.6784961272055571,-0.6180700629107395,-1.4463507400924396,1.8723235123876316,2.106288854635558,1.1737962771965231,2.0605803096176687,1.0654931137112336],[-0.4911928678856211,-0.9239926596623739,-0.8428605371536481,-1.9186487685737397,2.542220023697877,2.7628888464058954,1.4990102804766263,2.8493040678761448,1.3393995908456937],[1.125810074576289,1.0206158490783677,0.6745467501218432,1.0623109318197643,-0.6949812942016279,-0.7947386473345734,-0.34319862567114817,-0.8250587599949476,-0.26597384504400173],[2.3582916600371626,2.1214943611125716,1.76151343677869,1.635834137338681,-0.7615832836868905,-0.7779183893584527,-0.7142598222456202,-0.8694892956569505,-0.6317634891613709],[0.38683869325667986,0.8099159301376514,0.7158508904906291,1.810417430303865,-2.323003919174108,-2.601472463656837,-1.4127743931646133,-2.6166805382576714,-1.2466987237925178],[-3.171756899800341,-2.688844249663495,-2.2575153000486865,-2.2804048553612772,1.0645107583650524,1.0690142480337448,0.8829711437983572,1.098426154211461,0.808047056324162]],[[0.7392450590960199,1.19882839090354,-3.7440249597079918,-4.97619336134337,-2.3903845426480768,5.249758921389337],[1.9848128862962084,3.8044905301931173,-0.33538413807071293,3.0705167357334497,-5.137107875315674,-8.42679442749778],[-3.8860415243320405,-4.946046035337187,2.3053977922126907,1.6283628019396437,3.2885987377496138,-3.0421562795432036]]],[[[-0.1389523012082865],[-0.14516423177111729],[-0.22506133402712983],[-1.0418556578792535],[1.4911851617761],[1.6756667376715435],[0.7770065822526888],[1.6953301076941367],[0.6861967036662381]],[[0.4729166521824673],[0.631604999042319],[0.0915045989056688],[0.3673420238961817],[-0.5824033596155364],[-0.5423098045422919]],[[-0.8338558742378143],[-2.9328877887047873],[-1.3849464509061975]]]]}