{"model_layers":[4,9,6,3],"model_func":["linear","sigma","sigma","sigma"],"model_weights":[[[[-0.31282660931532935,-1.2923769106574357,2.0183033046698315,1.0965698486832025],[-0.33966378707138506,-0.9377898769162492,1.0013174209380433,1.2402429686799854],[-0.31295229275043474,-0.8570676610519555,0.8980270758410216,1.2438632925395494],[-0.6458567627426373,-1.1874582804264033,1.1474122678245957,2.8985950554083333],[1.1428007893718424,1.5355654479752956,-1.8551854153720666,-3.632955039427415],[1.3718526295357696,1.7430056237696394,-2.1869874161560596,-4.005393354664189],[0.4627665635901898,0.7821592665891713,-0.8779693499135481,-2.1424625630662053],[1.3718171900698513,1.7654054112927424,-2.18954926342124,-4.053763941415209],[0.3355205854528871,0.7222567413354011,-0.7238461626127356,-1.933699570383855]],[[-0.2008637941780812,-0.6811071031244078,-0.6335963383133583,-1.4695404645536019,1.990215221215308,2.232322622294297,1.2798306528239818,2.186834261751396,1.1731753853763824],[-0.3501763177327215,-0.9096318544430869,-0.8427328403100772,-1.9074251420145447,2.6792247651074157,2.9149982425953778,1.6166626498624475,3.0010159650251205,1.4583382392843403],[1.2615456405983843,1.1020817250107557,0.7492545735749717,1.0864383830871858,-0.6365751334347092,-0.7308947362006218,-0.3287556704760937,-0.7609092507944457,-0.2597166668698794],[2.517618688047919,2.2211598661321124,1.852451765079684,1.680769136032175,-0.7749773168974149,-0.7851052523065054,-0.7700431552069475,-0.8763887015554687,-0.6941292770070079],[0.2520719186973113,0.8082880733133534,0.7305069209287186,1.8249837296555491,-2.475935802717767,-2.7680532220873197,-1.547095180899529,-2.7832425082827092,-1.3827542118284157],[-3.313594827768387,-2.7755118065748157,-2.3365364825410024,-2.3176897788291164,1.068111182771426,1.0673477451093198,0.9244982662227108,1.0965235717778474,0.8557819362342386]],[[0.8152744316583953,1.2729025590569525,-3.912796092673067,-5.2571182342178435,-2.394131204678591,5.622567679863243],[2.1560165692731847,4.040148411351536,-0.22128309317038636,3.3655404460009635,-5.655369426877968,-9.04855566356206],[-4.151628089295167,-5.243707785402648,2.3479189693037963,1.6314142671140943,3.574034034489575,-3.04348932726362]]],[[[-0.1452100998904153],[-0.19581583536492944],[-0.3023629225671334],[-1.396624838456877],[1.974464520018942],[2.2015385058695838],[1.0638293449158271],[2.227959124960926],[0.9500646102036205]],[[0.5720957104565516],[0.7787927022657907],[0.15180546094659922],[0.37734336688310377],[-0.7235058267916004],[-0.5569449233321145]],[[-0.763441944782274],[-3.2301465124296813],[-1.3855006605354265]]]]}