{"model_layers":[4,9,6,3],"model_func":["linear","sigma","sigma","sigma"],"model_weights":[[[[-0.6393016660274204,-0.7987145207553307,1.0602236628789656,1.8248698560324845],[-0.29256584176100964,-0.9295983493330892,1.3907392174385924,0.8597336798893133],[1.145840256225307,1.0208035660394152,-1.5977452445505007,-2.7852448265223897],[-0.316026578201814,-1.3152315979838451,2.0033619009210217,1.0584134532716665],[0.9426087124527687,0.9076389858192833,-1.3777813631173599,-2.359523781838569],[-0.768160976798017,-0.9566321585053587,1.211112905386749,2.254122243610667],[1.2162887644460423,1.0618829021577594,-1.7026509647447345,-2.845860986850305],[1.3393212562510735,1.1874407169404595,-1.848965332194706,-3.1757074390787685],[0.7731975561366847,0.7440005616593452,-1.1615803981389825,-1.9770017764286194]],[[1.1881455518706876,0.242252166950401,-1.6359373079771566,-0.09682764715542753,-1.4058966149211396,1.4067404826434655,-1.6644953214493494,-1.8719554244404546,-1.1717857756659755],[-1.3136349008538715,-0.4241139845206314,2.0207993654777447,-0.5657591467944659,1.7365055121733917,-1.6854237301611332,2.080308423753142,2.3031473367397512,1.4884298222025756],[1.7377974429384844,1.915276656011804,-0.8471154645944468,2.9650135094460026,-0.6775090241263575,2.269465460505551,-0.901133979148302,-1.0873385351437626,-0.7455210623471533],[-0.6153968001790711,-0.4372971230112425,0.7609105722984164,-0.5169063781466551,0.6402627999153195,-0.8287601168593495,0.7686140428416449,0.8811327549962731,0.5710309656553209],[-1.53115060715675,-0.4958937317910724,2.3021216721554136,-0.7263796665456937,1.9851878419617712,-1.98887654481148,2.467436493647836,2.6834994171253195,1.6851756524106347],[-1.8924444821972088,-2.1827221167747446,0.8694664986705735,-3.28553879732024,0.8408443704507472,-2.4361513027208286,1.0432778664947797,1.1192779667644528,0.8060725665293601]],[[-1.2760254490573586,0.76387663529822,-6.376192990913218,0.5258353164780788,1.2454676413583043,4.913438516313628],[-4.28006683781012,2.8422174613297613,3.338030745941726,-0.5118476528976303,3.7780642708397747,-7.2112256397200625],[1.9949271586304151,-4.050357335234272,3.2092810985651585,-2.231548470433762,-4.847507428976609,-3.1296412932405357]]],[[[-0.5821739613658014],[-0.15297160147639663],[1.093997714330832],[-0.16176897566184156],[0.9321544538245855],[-0.7221328840401209],[1.1409037712389802],[1.249110735349603],[0.752296299348889]],[[0.05771141022167039],[0.35012009184112924],[0.5728875408425246],[-0.014301998797961834],[0.42383545470172607],[-0.588405351526538]],[[-1.6083404525781448],[-4.18821001218389],[0.37172679209935583]]]]}