{"model_layers":[4,9,6,3],"model_func":["linear","sigma","sigma","sigma"],"model_weights":[[[[-0.32323333846731384,-1.3333546993217424,2.0746473330575648,1.1274518293524818],[-0.29465369539011654,-0.9129999357045389,0.8651606826313498,1.4094121413030445],[-0.2578579264128483,-0.8445857226159713,0.7710776993890712,1.4204246744753004],[-0.44143534456008726,-1.289827425844131,0.9606459735873832,3.146960904021544],[1.0484811539296948,1.7388534240431819,-1.8552733415033944,-4.002386905590892],[1.3525743879893213,1.9866004180499208,-2.2950311296414174,-4.419060582217032],[0.27755959126810664,0.8565004230096804,-0.6885270837368711,-2.4165109691015503],[1.3511309740888133,2.012952789244376,-2.3001800601138376,-4.4646234791265],[0.1527013981135362,0.779864344810154,-0.5244640440780584,-2.2054901674508574]],[[-0.12730204117928226,-0.6992426269737542,-0.6597703031831854,-1.4950678921963743,2.08659774349755,2.3384408918361244,1.3699668765956445,2.2931409495412733,1.2664031047288369],[-0.22873317724175637,-0.9067759979482217,-0.848354063876377,-1.8945895080500814,2.7894229333158913,3.0418070647532085,1.7172845759271718,3.1277267768112114,1.56296578616414],[1.356806786225739,1.1562099773961199,0.8008208982392822,1.1075035755626284,-0.6098874691087985,-0.700186942947723,-0.3353734301655376,-0.730000197537166,-0.27167991710028216],[2.62093476370194,2.280967605091655,1.9090734761520396,1.7110666097734224,-0.7820272254068764,-0.7876919644466103,-0.8081282113013291,-0.8787877734485623,-0.7364587721025851],[0.1404338594371548,0.8242527461718142,0.7567787816451307,1.8416900290404057,-2.6017226175674515,-2.9091186549555808,-1.6646065444851064,-2.924413751282987,-1.50473189908143],[-3.4071121719659345,-2.8284356366729715,-2.386656355331136,-2.3434466339194135,1.0709010721969932,1.0663150754789013,0.9555822360527889,1.0953351115820602,0.8909411593747986]],[[0.8615761886801121,1.3180595563274908,-4.037829954177374,-5.446958528694009,-2.3964683062968466,5.867815885009638],[2.2988626175284606,4.232312528294406,-0.18226994264087792,3.510778930907652,-6.085304830880558,-9.460681081676764],[-4.355262336459374,-5.474369818917572,2.426525258870296,1.6885044299611756,3.8500625447736483,-3.04441093131837]]],[[[-0.14974861252715968],[-0.29085266872217724],[-0.41601296710003],[-1.7713879372701504],[2.4627284969363332],[2.72631241841208],[1.3779933241749172],[2.7588025886350827],[1.2448356537203036]],[[0.6490182651948115],[0.9048647883734012],[0.18199929510037652],[0.38429329880803115],[-0.8399559949186917],[-0.5651893992398319]],[[-0.7205900446523789],[-3.4792437585214624],[-1.3307853825946445]]]]}