{"model_layers":[4,9,6,3],"model_func":["linear","sigma","sigma","sigma"],"model_weights":[[[[0.9617201399951313,-1.1931547764666626,-0.8018802314086914,4.003763418117419],[-0.3153800559183206,-1.1004867448372433,1.6079237169819105,1.007883204259099],[0.3815951187749206,2.436571306286854,-1.538736646969976,-5.38127501777403],[-0.38860140886296185,-1.5221117369505561,2.2608389350085614,1.188904555075217],[-0.556939379765571,1.7734530475437815,-0.0178422600701787,-4.96739075443165],[1.0499524162289184,-1.432259797493021,-0.8274539156646769,4.585661103322589],[1.1161372734317678,2.7815606804341866,-2.6211104679310937,-5.549180063654422],[2.9263092004824798,3.607997183351257,-5.189749402034638,-6.272656380950962],[-0.932394286960523,1.3447459605273338,0.6718563955465344,-4.543055429842258]],[[1.5506138021724583,-0.16177941260687126,-2.5602770757847972,-0.688168951147449,-2.26060896466618,1.7277204477396289,-2.6865237787142213,-3.358674065081552,-2.0088269005303854],[-1.4517665743140515,0.07520013243306968,2.7611910573263043,0.10529982234522071,2.4310953576256487,-1.7730906950859364,2.9050801832333883,3.5345967824195657,2.184978172288757],[1.9284362236223571,2.3306413480785815,-0.9831534069366383,3.44593972957222,-0.8565642701990361,2.428849252102928,-1.0258320835237287,-1.194405962906515,-0.9752332938251767],[-0.7667580148773926,-0.6916136971217407,0.6420792512750904,-0.7815427961434228,0.56699917484706,-0.9506257987902096,0.6403890790304787,0.7534840793080044,0.5457270446512447],[-1.6265631268982799,0.06897245168294645,3.0964503158762535,0.04036960615800405,2.719210267407371,-2.0203273076158315,3.3702428232672865,4.08281290694235,2.422227176370555],[-2.080451345940755,-2.5960303109482017,1.004686798710407,-3.7654557095336645,1.018627995118669,-2.5929312160339095,1.167364439325184,1.2261984660209069,1.0343840953204628]],[[-1.3688452786545942,0.712966315792793,-8.271319429226892,1.1000951153945135,1.1911355285466172,6.695722101799411],[-6.962041669174627,4.12638204888742,4.31591962009299,-1.2805416791906201,5.226202819613918,-9.813491924626957],[3.9355808249619812,-5.634634833448059,3.698903698354899,-2.6829242383925496,-6.539050317181732,-3.1333380472615517]]],[[[-3.2039066589467153],[-0.16430312646960246],[4.9790783403560335],[-0.1903519400910266],[4.377217560913357],[-3.7917086248323737],[5.119685097415454],[5.470774947442703],[3.7775200271183187]],[[-0.559601743663596],[1.0458690802725077],[0.5097541853905926],[-0.16312641858667684],[1.2198233949573172],[-0.5239684779843471]],[[-1.7480302185079148],[-5.776115495826298],[0.855829914253428]]]]}