{"model_layers":[4,9,6,3],"model_func":["linear","sigma","sigma","sigma"],"model_weights":[[[[0.016134587992907054,-0.04767641467206838,0.13844712789556352,-0.006099709401458023],[-0.039431655749226226,0.038208191752306386,-0.11751884924020513,-0.06085866441126884],[-0.03974158100470166,0.04528957477582676,-0.1064456226025388,-0.08784948935065277],[0.0068660617465933094,0.06305598815880514,-0.21169584550127374,-0.10878054406328284],[-0.020750127927893155,0.013642280968354086,0.08606233786353885,-0.010926936617098298],[-0.010205394603464452,-0.011673891108545222,-0.00796822830297064,0.033797458127909095],[0.002648169400363621,0.04371342414043864,0.07990184919403581,0.014646587068883823],[0.04553028507875431,-0.07584096180868811,0.16900784399232757,0.08713116886864164],[-0.013057903358968318,0.004271033218953706,-0.13625080137053486,-0.03375663359804961]],[[-0.08967339224292548,-0.016625159543830065,0.050358838555164875,0.055200917291032804,-0.044168939891631794,-0.05400020534843245,-0.043169887003106935,-0.06442726945052939,0.04491778399620803],[0.0028958790674942754,-0.031674520986031456,-0.02526897899920813,-0.12019270361394681,0.011022483157006843,-0.04854517115270995,0.04561878454807505,0.0629471306121294,-0.05769326228742427],[0.06661399917940147,-0.069758653331474,-0.13045221014944508,-0.17404891395945374,0.06224324984594242,0.0004634037909839855,0.03280966566450491,0.09742687748122589,-0.09879000152711451],[-0.02503162456401701,-0.10524156145736989,-0.06683564883268335,-0.11961833568814643,-0.008157818875583776,0.02410699154445128,0.007146645585313094,0.07149763951689783,-0.07026315967031008],[-0.11012570897009116,0.08712996931511267,0.026722585488122338,0.07450905607877209,-0.006260244960193906,0.01650606702170612,-0.018668658177856706,-0.15959162143616415,0.047492038212702314],[0.03697001692352886,-0.09364230930535748,-0.034688396221582374,-0.08659027224539942,0.02057446960635694,0.012479647578458385,0.034721284139802924,0.07197945205479996,-0.015984619322521505]],[[-0.07217475628595726,-0.23332044661667767,-0.35781501325520604,-0.24747309204777476,-0.024188011610379423,-0.2671562493398453],[-0.1358907263728886,-0.1813518701860199,-0.12521723262158996,-0.12061659155116544,-0.17822814598893433,-0.12422419196732566],[-0.23213307006790584,-0.01413425253686747,0.053457787521479755,0.008198912344701086,-0.29928004664606206,-0.04322954711923527]]],[[[0.00011793576318521789],[0.0030828014068531515],[0.002377766398926029],[0.007626608765428673],[-0.0005091286752494239],[-0.00004103106865432722],[-0.0010122714917744666],[-0.006359259590636162],[0.0021942964934221856]],[[-0.032289581923835076],[-0.03285106385576348],[-0.030652835919669205],[-0.034496526509515235],[-0.029670060820081987],[-0.03396672174281333]],[[-0.25043753377260636],[-0.2839574990063214],[-0.3068081311070799]]]]}