{"model_layers":[4,9,6,3],"model_func":["linear","sigma","sigma","sigma"],"model_weights":[[[[-0.3602395699340333,-1.319983536750712,1.9814465810053254,1.1559136834862687],[0.04372132798785145,2.2691946534382947,-0.9796449698875629,-5.364680907263501],[-0.005339406455280197,2.266460074289841,-0.9183058392544273,-5.375011141892286],[2.7023254400946715,3.4474457701888235,-4.6136550645077605,-6.840652253243219],[-0.4635499577694622,-0.9051825715532421,1.0654701091413405,1.3602795430205534],[-0.13830384028836298,-0.6205627799649357,0.530579346810849,1.0550690725363],[0.026808885094790874,-0.8526562856836281,0.31341559972106015,2.239824902478193],[1.1548286374134216,-1.314450928058713,-0.9376293353615336,3.8589719663283857],[0.2003241846062095,2.271739741560992,-1.1736377622919187,-5.319575460249709]],[[-0.07447365233188473,2.746659272800171,2.82351542796895,3.690755393004164,-0.4818721255433666,-0.3151013647435677,-0.8600371291437127,-1.614138981183598,2.7932831795830495],[-0.1137567989924634,-2.4016454330357355,-2.4038018177957485,-3.1577558583682697,0.3380272381564539,0.2417101958187007,0.7393375497534458,1.4449717122625205,-2.412373484365014],[3.1582759468275214,-1.164411796763399,-1.2271544924581277,-1.282535385567832,2.57876524516735,1.1670526583224836,2.293788738651539,2.346295066802283,-1.1691011698714837],[-0.10794490284616379,-2.557258258443247,-2.5276261090681498,-3.2716269712506505,0.34337178755370207,0.28891629467645263,0.7358825118646609,1.5272236598468085,-2.5035562249847385],[-3.150114136162808,1.2097809902895245,1.1526915424419215,1.2448180148416854,-2.458666050191686,-1.1550959022355252,-2.2068337578967268,-2.3184444665619184,1.1479455397413847],[-0.032388322595237516,-2.1721304337693987,-2.119787396849713,-2.7537167139394443,0.30301089559609784,0.2109617195832706,0.6277579611327185,1.2914899782017104,-2.0775859743365728]],[[1.3884262281381634,-1.8509974489735503,-7.934586475635188,-2.185457243002635,6.7677348794670875,-2.214106974445636],[3.5425482943418265,-4.710442922842647,6.704530392559615,-4.870592387631084,-8.22305277561395,-3.7542451483054733],[-6.728836433002444,3.4961333466105495,0.8836866536922616,3.934978699618512,-3.332021552247028,3.3028728083058496]]],[[[-0.15106364591911747],[4.804782504925822],[4.826840962040622],[5.490354450100666],[-0.3474448784366931],[-0.46976465554655183],[-1.2487897467252376],[-3.289823220310907],[4.7206268261037305]],[[1.1908209565318975],[-0.9370951817315053],[0.4211744177063127],[-1.0055656940436442],[-0.3634825721284861],[-0.856505895352521]],[[-0.7227475311452366],[-2.6023825422076747],[-2.253345970665352]]]]}