{"model_layers":[4,9,6,3],"model_func":["linear","sigma","sigma","sigma"],"model_weights":[[[[-0.3433738690246031,-1.3010037273305404,1.9705245851724633,1.1499200010759398],[0.24258070575278082,2.240785266479544,-1.1925296221725559,-5.193263786109789],[0.1998326922295602,2.2420436337502925,-1.1417949005337564,-5.201537153251991],[2.3784974727713784,3.1960613024299223,-4.065392763695832,-6.608653834483003],[-0.47459563814790134,-0.9230455846045683,1.0992647474734212,1.286249634781011],[-0.1520107494448053,-0.6234467622544916,0.5677038589130876,0.9782879758500802],[-0.05007469173790185,-0.8455760056252878,0.41628755304228576,2.126837503225942],[0.9041977435218004,-1.3224885702073772,-0.6019047821063933,3.639525232982061],[0.37764033729582946,2.2309631713829257,-1.3514549504827973,-5.154485314278058]],[[-0.12545833602615208,2.7142086005322223,2.7909617783433824,3.53677182445801,-0.47968079976147276,-0.3124770406809554,-0.8558397557459013,-1.6055223585997345,2.7604129647789897],[-0.0644207378910331,-2.3634273731167297,-2.365491642589911,-3.0223480523165707,0.33771714244125767,0.24004790804519796,0.7344885550870537,1.4354456103170845,-2.373898742340583],[3.1367405682335954,-1.1462074504997843,-1.2088581518208759,-1.2672565490457743,2.5671852061121787,1.1578617048569473,2.2829119025005293,2.3371411950337255,-1.15114550245751],[-0.05596912872230021,-2.5178286532041683,-2.4880442642746714,-3.13169129535839,0.34402789430847286,0.2877130422770865,0.7307974540109035,1.5157877847750103,-2.4640197123954257],[-3.127493625145304,1.1903584942123888,1.133172398955595,1.2284808726980452,-2.446487646581567,-1.1454522157745535,-2.195402224553222,-2.3088294069636865,1.1287843455138729],[0.014289753381461597,-2.1370218819658127,-2.0846652996013804,-2.6301739898966243,0.3040041344762727,0.2110581485649049,0.6259999172970246,1.2872560259481634,-2.042047546408284]],[[1.383610024921766,-1.8502294485419286,-7.8327390034850675,-2.1847610631235583,6.661976216538958,-2.213027799263031],[3.465018659852828,-4.607077394100356,6.617849223009031,-4.764265126176248,-8.10044553125287,-3.6622107224849336],[-6.627419251765264,3.4127788445347904,0.8941422081539622,3.85017944304804,-3.3308955995887777,3.2257080237533517]]],[[[-0.1468414262320007],[4.481505052320445],[4.5023450736457935],[5.156014698473642],[-0.3032012101473657],[-0.41615999563954637],[-1.1223767487551366],[-3.0067723625407434],[4.40259675329548]],[[1.1366894120922804],[-0.8850986795045892],[0.43607001148398367],[-0.9507963915981673],[-0.37940036677749633],[-0.80744738948577]],[[-0.7269435730983153],[-2.5662254617951237],[-2.241817799151718]]]]}