{"model_layers":[4,9,6,3],"model_func":["linear","sigma","sigma","sigma"],"model_weights":[[[[2.376180662199806,2.2409336072347448,-3.621804578188357,-5.460470483283856],[-0.3205490669386717,-1.2153886171427173,1.7194962406012186,1.1644084961823984],[-0.30683871663820594,-1.055265046345596,1.3631126695513431,0.9982943781463992],[0.9188903138413249,1.4585872134309037,-1.626713162097427,-3.4956575268091123],[-0.5368717634033587,-0.8993862468241274,1.1027462786416995,1.7364893543793813],[2.116104172954784,1.9760976199042448,-3.2323815369439033,-4.9966051915061795],[2.445411695833325,2.2089576248538463,-3.689233050942557,-5.490879807157314],[2.3049304493160387,2.1588499553055844,-3.5114164317519587,-5.328149686254053],[-0.5843865201732227,-1.380458390403287,1.1255403038965708,3.1707076553671194]],[[1.9706941598479728,-0.27638271012076043,-0.22376177420072013,1.362850211573388,-0.4928935102154096,1.815588913420396,1.9303719052613255,1.9298089756849877,-1.0700627293291691],[2.522631339216905,-0.3532739303902825,-0.27133332133002813,1.655141123240339,-0.5993821287796571,2.255779263999451,2.461053905272808,2.411409804422426,-1.3108686410916421],[-2.885408298338022,0.1645237274499168,0.28207637334209645,-2.0351999504718,0.6826021272190488,-2.6763676590798657,-2.9192132277459875,-2.82480493743774,1.4846762748480429],[1.119842211718281,-3.158562448394079,-2.6999635064781806,0.8665153717328055,-2.3236868068549046,0.9410705927139048,0.984504976576235,0.9569074764942319,-2.5122850083945463],[-1.8439217656247244,0.10928030349245157,0.11365031659980308,-1.2804171411394139,0.41913557750590746,-1.6457930842411133,-1.8493085376644847,-1.7805830808136922,1.0036667381065862],[-1.0938368958396545,3.1321207197250205,2.643662566597309,-0.8144484883189075,2.1966937282519092,-0.8774719100540512,-0.9184962927062524,-0.9998309431055155,2.3916539716064507]],[[0.6268477095143032,1.3969033199315004,-2.7136828383974465,6.385204182694245,-1.803341130909236,-7.538690068694016],[1.7657494871368449,2.916282485133405,-6.26033680321809,-8.403635440782995,-3.4273814041950774,5.662071415513846],[-4.031641987390584,-5.148395588358057,4.3236876939604905,-3.0615605965526997,2.213023009953083,1.6868178097881017]]],[[[3.1286359585480303],[-0.1258765517994593],[-0.13692202357669922],[2.1423763086172265],[-0.5747529849271343],[2.8629544106346207],[3.130471251695589],[3.0501234552880065],[-1.7574230450401853]],[[0.5165873489935233],[0.6308232713749637],[-0.8615831607032338],[-0.9396181494713477],[-0.4271750165085993],[0.8877679372347221]],[[-1.3104944526935791],[-3.0806946964196977],[-0.9282851630266942]]]]}