{"model_layers":[4,9,6,3],"model_func":["linear","sigma","sigma","sigma"],"model_weights":[[[[-0.3227834722106201,-1.1553633169495703,1.757232698728505,1.012763821818431],[1.1458025016976774,1.2791506385709908,-1.7302971285595756,-3.2607529195297547],[1.1375262053543373,1.2876642876177977,-1.7188542846263644,-3.2830210536357605],[1.5017647388833708,1.544818805923777,-2.2008035930574272,-3.885997824524737],[-0.353036203402374,-0.9457819231064183,1.420745560784467,0.910903417874461],[-0.1828986702536417,-0.576171647397606,0.7372003916222987,0.4776594301164885],[-0.4485788593787361,-0.8535494796980524,1.078069097783054,1.0896296040370637],[-0.6135657451039741,-0.9885052112429976,1.0759495003141348,2.2995768001627934],[1.1679984939917778,1.2370914161033038,-1.7482973702379594,-3.2047974547155187]],[[-0.646172347064037,2.248659277490463,2.3270107485244766,2.750693882834556,-0.517062459504467,-0.15927965080675427,-0.7546418698471875,-1.5636133003291262,2.286210303764652],[0.3521171364512699,-1.8904864854449288,-1.892559941388003,-2.316396937410994,0.3526322822484492,0.08876752152930707,0.5997887708999301,1.2882552228392454,-1.8976007608744976],[2.720313406906921,-1.0950570476161259,-1.1573677082211877,-1.2497087486378378,2.272444331565781,0.9464198026767029,2.0683263653865946,2.1698393178124213,-1.1004654028825296],[0.3958322024874325,-2.0358847689984585,-2.0061376344146775,-2.4062980643181207,0.37226944462892336,0.13998127064294905,0.6034528047144833,1.3809789906039203,-1.9784227657310622],[-2.691947758975124,1.1317370562276596,1.0741972152411428,1.2051595697197146,-2.1374724115385315,-0.9242307327968966,-1.9704405785006505,-2.133229538665512,1.070646522150752],[0.3701099891048808,-1.7021628523568895,-1.649973620115022,-1.9810788957563972,0.3028554754709723,0.06450380372417276,0.49380664753552306,1.1439328561093889,-1.6038406970214754]],[[1.4058986484142293,-1.8292732916955596,-6.3156011103819125,-2.1657302878028006,5.191221674498648,-2.182837435470383],[2.760688036627841,-3.501561850221341,5.493066257859988,-3.627310270615579,-6.489193617301581,-2.665521640635264],[-5.648352097365168,2.516070109840472,0.8869251109095825,2.9358241616371714,-3.31649609452865,2.3819443106403666]]],[[[-0.1373221779980005],[1.5544024746009284],[1.5605557939217263],[1.8861363057775242],[-0.14550567980735862],[-0.11461540220194968],[-0.27668915795241994],[-0.8894992043688391],[1.5317187597596873]],[[0.5670636863906606],[-0.4297878763142075],[0.4310525496242483],[-0.4576082886190662],[-0.37837485863971776],[-0.4178692920112133]],[[-0.6876128555395963],[-2.074178065140042],[-2.2354943727470293]]]]}