{"model_layers":[4,9,6,3],"model_func":["linear","sigma","sigma","sigma"],"model_weights":[[[[0.13538133525643667,-0.5255918223607084,0.96146592334392,3.4355440327688043],[0.08780785161805169,-0.5002407321098011,0.9083682906950188,3.2626198953373367],[0.057929266309779986,-0.402124493657924,0.8464541039173996,2.8596141230374656],[0.0740421247918121,-0.4776694746450386,0.9994932152966439,3.600482171983489],[0.13665749945143935,-0.5576374806793603,1.01995953039113,3.6743913093030973],[0.0804603296196095,-0.5497672822208866,0.9986384278481872,3.5158309573335296],[0.07062425018868042,-0.25773433590610345,0.7007236851779034,2.3275020860162607],[0.1346531507775069,-0.5558436464500012,1.1270254377224282,3.935361720310798],[0.11666363275069483,-0.6056477936332394,1.2030066448224483,4.199108562866618]],[[-1.1034054407664953,-1.0988095465732948,-0.9277721367385687,-1.1886664924609713,-1.2433886370874556,-1.218591751233784,-0.7339024244809764,-1.4412015496235866,-1.579345211348758],[-1.3849444862080944,-1.319715010612597,-1.1242869866762533,-1.4079884639776103,-1.4999575617798464,-1.3957910150240045,-0.8172369660713288,-1.6508994099977539,-1.7725155310305116],[-1.2832097618227567,-1.190393917474229,-1.0044685158819107,-1.3732583501444984,-1.4330018343734077,-1.3032299248900328,-0.7964278863806095,-1.4789768229455849,-1.681779831119505],[-0.9374305907768579,-0.760949760718938,-0.5512912720755283,-1.071561724254986,-1.0675165429959077,-1.0048446021087667,-0.1957608560742842,-1.300106712342326,-1.5033556198745313],[-1.4006014507332798,-1.2841644703762747,-1.0904908668882234,-1.4536211034498954,-1.529747568548522,-1.449855096264364,-0.8683491001083968,-1.702514092104254,-1.8077266358084658],[-1.0219631771201456,-0.9004209175716505,-0.5777781301444921,-1.1554165932620164,-1.1968963499968643,-1.0616791669177381,-0.20734518406683797,-1.3817290820966304,-1.6308277725486444]],[[2.5228361433521465,2.6991122343495815,2.505714663864459,2.0186343716816366,2.6107537269329066,1.8134005503929225],[-1.3231681440939027,-2.418495840049044,-2.0652979502199695,2.472885120220358,-2.6745530163388365,3.2115163627737338],[-3.5771319928690226,-3.247767374837945,-3.1804277430652674,-4.4038668994883015,-3.0779674952863343,-4.476877585509776]]],[[[-0.6236117747816693],[-0.5711178715393578],[-0.5076205887949681],[-0.6785734410090192],[-0.6537910045711485],[-0.6323408092222983],[-0.41134145386175974],[-0.720894563605003],[-0.80752632734489]],[[1.8945990291855739],[1.9878360514564606],[1.8279364140554963],[4.1036337262678995],[1.9984735679165213],[4.579747151455906]],[[-7.321482913969337],[-2.1861379084071824],[3.814638546299866]]]]}