{"model_layers":[4,9,6,3],"model_func":["linear","sigma","sigma","sigma"],"model_weights":[[[[-0.3221122514265493,-1.2187102339531994,1.8557579532124826,1.0822983337314314],[0.9032992330630049,1.7153300180547382,-1.6802801715917794,-4.020690381915988],[0.888470324080887,1.7264194994374518,-1.6655115780558858,-4.036025138089398],[1.5112587128547996,2.152441445086733,-2.542955734215481,-4.772940044671286],[-0.3957981029599361,-0.9831284260775915,1.3610301232026705,0.9785518365192807],[-0.1963205779853722,-0.6237427547104956,0.7082321159159379,0.6127655513995255],[-0.34598555397202324,-0.8283839131410232,0.8604889873752263,1.4782729162362822],[-0.23501429691951323,-1.146097826815511,0.6817840010354865,2.8401618452042383],[0.9465525347369494,1.6759544067870566,-1.7214094748338156,-3.965632260668754]],[[-0.4403385639209778,2.4587026364441114,2.536077578870985,3.021556399643934,-0.4084409840455037,-0.2242809644247671,-0.7915576067080871,-1.5547043971421692,2.4996752211676756],[0.18787397495353345,-2.0958725551555095,-2.0980623775918166,-2.5554633669415208,0.26599695213840585,0.14756849340428482,0.644072912477993,1.3306164820494877,-2.1035421573572437],[2.9178788886285827,-1.1336572909891685,-1.19598332581432,-1.2740516271642999,2.4384622826018214,1.0492784225115788,2.171322902581461,2.2432498567390495,-1.1393508010151379],[0.21668450397918393,-2.2429426477120864,-2.2131790296467306,-2.650455074846151,0.2756687465494227,0.19658574991284572,0.6423032868756,1.410894608506468,-2.1864442728959173],[-2.899644687267472,1.1730518349638959,1.115527213813552,1.2314137607045037,-2.31221670564785,-1.0325931596337143,-2.0790931062532967,-2.2108695650295997,1.1122649982106614],[0.2349702494576332,-1.8938774474562052,-1.8418723091997011,-2.202160314727427,0.2354015613634001,0.1256783521131246,0.5447774120209962,1.1987760065546202,-1.7957749978213562]],[[1.3936721764024527,-1.8431903490678478,-7.114207440271449,-2.1784567158378483,5.961865015311586,-2.202655575673624],[3.0489122436665888,-3.9750370115818776,6.122585283687872,-4.115059129668404,-7.339645505790999,-3.0908112256745355],[-6.1047821569906136,2.8792708772129223,0.8366720889480458,3.3077356263777142,-3.3233158088291046,2.7226308251062714]]],[[[-0.1390004858085445],[2.586762988409609],[2.598916331215996],[3.055650712731226],[-0.15337508919418635],[-0.1875565026364331],[-0.521385767611351],[-1.5861741654035861],[2.542566788137594]],[[0.7976832415024618],[-0.6134193903391253],[0.42214417871543114],[-0.6575017701690803],[-0.36882007186997307],[-0.5698116029481475]],[[-0.7113824239352606],[-2.2983471327710574],[-2.29209778386008]]]]}