{"model_layers":[4,9,6,3],"model_func":["linear","sigma","sigma","sigma"],"model_weights":[[[[-0.3842778223499659,-1.4367222703689122,2.175762132556467,1.1803057057185373],[-0.019340145413822448,-0.9166580543867443,0.410117531547558,2.1190726796539296],[0.06307962772086119,-0.8788428272710108,0.29179629021375886,2.14499655673872],[0.6811644090653929,-1.5496488040640493,-0.24077803976360568,4.06655452762662],[0.687610785667206,2.4221843822825337,-1.8141528098013335,-5.297910388953619],[1.8292062024521178,2.9856564329792974,-3.3903905177876235,-6.031746434922674],[-0.8092090356231059,1.1033793445249869,0.5273629738746055,-3.446269675228226],[1.830345724743322,3.0149128480685885,-3.402621027960214,-6.082005758277849],[-0.9302182363730053,0.9961123338182624,0.7219219188097432,-3.258839897629045]],[[0.12211081961779427,-0.7589330067275456,-0.7418464502865039,-1.5642643822579398,2.3801786639713836,2.744371757562117,1.657099342083538,2.699413779698048,1.56782513775512],[0.09297397163297746,-0.9779563861339017,-0.9477044338922654,-1.9544524589798489,3.121051998794086,3.5226179477366015,2.072971176311995,3.6086092815587123,1.942790000203864],[1.5446337192062847,1.257188128720845,0.8981933867420013,1.1574097534024177,-0.595888380633107,-0.6786143104607611,-0.40451085612871135,-0.7081256067873799,-0.34668621685355094],[2.817574460805976,2.3893898466154964,2.0129296575049973,1.7784436875043885,-0.8297249351816414,-0.8245081095698568,-0.9274141860485386,-0.9153223295016142,-0.8575152237771805],[-0.19078090421900779,0.9367657517710665,0.9019717674500507,1.9611049517175234,-2.9981383125325602,-3.467135498921725,-2.0757633874039616,-3.4827833477930623,-1.9400644073937348],[-3.5835712187233275,-2.9236015523898526,-2.4777012679397883,-2.4012667027702825,1.1204591314803687,1.106785458917442,1.0693804893038086,1.1355746934538935,1.0061080766101889]],[[0.9570771119173443,1.4117535880527334,-4.353598552718569,-5.888824865569458,-2.4013897066017402,6.421641248257439],[2.735665246744512,4.814945313973503,-0.10730088019065544,3.8089268048790625,-7.29198916176637,-10.453993284823747],[-4.977772587664044,-6.187674781772332,2.670714733843242,1.8881839309753652,4.729681667059877,-3.0466289345165483]]],[[[-0.16776743305953132],[-0.8987242711496721],[-1.0741219910060857],[-3.3649701155669516],[4.425515590938409],[4.829005456920175],[2.7835637290015764],[4.881938105847302],[2.6057896578393573]],[[0.9092487483970441],[1.2412230803199247],[0.19570274605278798],[0.3601371959752063],[-1.1870274381368522],[-0.5341627051473716]],[[-0.6317799088654532],[-4.137886218454793],[-1.1366130736726137]]]]}