{"model_layers":[4,9,6,3],"model_func":["linear","sigma","sigma","sigma"],"model_weights":[[[[-0.3260260804035508,-0.9667742791578056,1.4867000161138442,0.8150854902880653],[1.0063314483587693,0.9300132975397782,-1.5290214726901457,-1.6589168409097876],[1.0025125884587338,0.9329555688660239,-1.516277987520608,-1.6863588038596862],[1.2591046244904318,1.0635379660217879,-1.8275702135483614,-2.022625203055248],[-0.33648440076278197,-0.7916637961154556,1.281094386179433,0.7157502682145815],[-0.08239312457314382,-0.34548563565943957,0.5180657886929838,0.28159569346297614],[-0.3644367466163908,-0.7471603325907762,1.1998084965223093,0.7448019761996513],[-0.633075116973674,-0.8898703399206855,1.2245665515893607,1.2228320966584634],[1.024167842672328,0.8885143968103061,-1.5403066745157166,-1.6203787560019354]],[[-0.8764027799561742,1.7496934120702323,1.8256581506338534,2.1876900268646606,-0.6585049508529058,-0.0982958459717992,-0.702406439622489,-1.4128802367123177,1.7888406065762243],[0.5593903311835594,-1.3828204202729213,-1.3824361608345999,-1.746556930330414,0.4843024016203614,0.041401397293658604,0.5630451570095315,1.1129782503931065,-1.3934199750367746],[2.1567069461521515,-0.9461838135816466,-1.008688044714505,-1.1367901927536181,1.7709306025342506,0.6530438498715848,1.6772056452166588,1.9523686821131834,-0.9498704417594536],[0.6171944594887797,-1.5265217225550687,-1.494282104447641,-1.8344946122205246,0.5146076350311597,0.09576582535038063,0.5707908987221901,1.217091288065887,-1.4722416018400448],[-2.092307816537812,0.9664597896412376,0.9091402678463049,1.0783037685942616,-1.6030403467000158,-0.6120372997493905,-1.551416348528235,-1.8987660937630435,0.9035070106683541],[0.558131825525624,-1.2495801297541254,-1.195165554586605,-1.4736612126616702,0.42551728148810936,0.028960033922468875,0.46818267715512424,0.9912643422976812,-1.1546059601184344]],[[1.4700389660299045,-1.7576328436744906,-4.440259563882162,-2.1005711426597657,3.4530300103260547,-2.083219835021985],[1.9834394633632415,-2.431070153160585,3.5079589976422,-2.49947504367158,-4.047503537094705,-1.7504786219438977],[-4.474100555478446,1.8967473178001875,1.3264286006448045,2.28940325274574,-3.291834834881205,1.8265541157787537]]],[[[-0.1271962444238345],[0.4577686573570664],[0.45732063771649073],[0.5596172740038221],[-0.13093417801113402],[-0.04991072261201674],[-0.14109220884087698],[-0.23977985764463036],[0.45507731735307305]],[[0.26653825410853893],[-0.16530120897981168],[0.4672961166596657],[-0.17508006430777245],[-0.4207877261676731],[-0.18175685342039555]],[[-0.5703681838746366],[-1.5958753947477438],[-1.774766961704015]]]]}