{"model_layers":[4,9,6,3],"model_func":["linear","sigma","sigma","sigma"],"model_weights":[[[[-0.05473436559663231,-1.1244093957428718,0.5039081854366292,2.8146762972678943],[-0.2920942665691778,-1.0370761905253378,1.5349068793814047,0.9785978062094219],[0.9002148970935796,1.9006087213089482,-1.7979744143043606,-4.2794657337254955],[-0.33766557581989437,-1.4500128508227013,2.2067340467338274,1.1658883358108556],[0.46829969197534776,1.5665325675907298,-1.178268922246202,-3.7182375980294897],[-0.11309007900913423,-1.4005844857599348,0.6646240634723489,3.319281803474335],[1.1247222541569981,1.996534512663839,-2.096113988218315,-4.443237617620268],[1.499026402814514,2.2815333929860997,-2.6271560366743496,-4.912158964222301],[0.1863774772767278,1.2449516580835216,-0.7385218245916383,-3.18078557024628]],[[1.3986978481271888,0.015015569827160874,-2.1893602412978326,-0.43440640135901115,-1.9272839131959214,1.604719235020672,-2.2371768721654557,-2.4954317722832537,-1.6761846880128],[-1.3430038130359017,-0.09949351203381479,2.4621833036582585,-0.13790988593237788,2.1543928748063292,-1.693194589879965,2.540760119234339,2.807840004013336,1.8998819809485314],[1.882728222683159,2.2390411485048083,-0.9206605380709588,3.340959682585041,-0.7784352108772874,2.3877727244893014,-0.9674708291197851,-1.1406672573607144,-0.881806934296577],[-0.6976941606568128,-0.5649601522131384,0.7148546216549733,-0.6470670138463283,0.6108330010789332,-0.8934651307061173,0.7189444460500741,0.8253062053527274,0.5622771292584432],[-1.503122297422816,-0.09711482882246703,2.790956852986398,-0.20567146359638894,2.4385818894307767,-1.9333501279620193,2.9853659124544727,3.2600725249839004,2.1272157185701337],[-2.0351738244506037,-2.5045614188468814,0.9378759605900018,-3.660193268557314,0.9363009167418507,-2.552229776311715,1.1045958797751074,1.1679302513387635,0.9367501855508421]],[[-1.3439312896005218,0.7220385611441437,-7.679378112379944,0.8521138813370566,1.2004523775880702,6.131160258763868],[-5.923928742315366,3.615577311096392,4.092661799536862,-0.9348487594025132,4.649848966631809,-8.986045404681372],[3.0871293280972036,-4.939746768987448,3.4860197342019914,-2.5566104983054685,-5.79374137900711,-3.132422654604824]]],[[[-1.786869237891676],[-0.15619389959783211],[2.997206891052223],[-0.1749898103332049],[2.6221985831851393],[-2.1847502036154163],[3.0795005912722186],[3.350252364784695],[2.2082949390200417]],[[-0.2964664045933706],[0.7943647717825506],[0.5595526582846055],[-0.08674348519939697],[0.9641529460057534],[-0.5783863503245295]],[[-1.7144693851841553],[-5.180722772878352],[0.644332449257864]]]]}