{"model_layers":[4,9,6,3],"model_func":["linear","sigma","sigma","sigma"],"model_weights":[[[[-0.3248703223366109,-1.178326437040212,1.7888488788993284,1.035422136795454],[1.1004434351419963,1.4165313254255818,-1.751867109759157,-3.465311747646177],[1.0907938235776091,1.4265087371272431,-1.7404974242916733,-3.4851620077876713],[1.4988348239911597,1.733119591294853,-2.304245619788344,-4.11009249842646],[-0.3567003775432973,-0.9592891337283785,1.420390319234862,0.932947928527539],[-0.19322796439186732,-0.5978599072355077,0.7389068231795008,0.5074214095346785],[-0.42666434206129533,-0.8495750677814142,1.0320047985157634,1.187379424098182],[-0.5396370808394284,-1.0406061671830336,1.006640342975102,2.4481364320074714],[1.1265508113566476,1.374336381012361,-1.773858655297587,-3.4090313667134917]],[[-0.5879044655824115,2.311534916680026,2.3895817394691368,2.8266950144619707,-0.47988318631982924,-0.17515014775618049,-0.7644483723620307,-1.5613326881742775,2.3498316374872914],[0.3029013445154585,-1.9503921884788684,-1.9524946352918509,-2.383850437615232,0.3203023083326948,0.10076044912360575,0.6075940622690199,1.2954397640625979,-1.9575373543135175],[2.7850209364430545,-1.110821006364808,-1.1731312967020844,-1.2610275596648597,2.3283648017745184,0.9808167559840447,2.1023369629789426,2.1934597018623143,-1.1163660608563972],[0.3433360223498165,-2.096110663250011,-2.0663436915653617,-2.474833559203475,0.33768953955127456,0.15202318524138492,0.6105536824420985,1.3852741537884876,-2.03879923072295],[-2.7599297742181257,1.1484890770812477,1.0909484273273033,1.2172197123615383,-2.1962938150409217,-0.9604611502679923,-2.0063205243653837,-2.158227446770018,1.087543802559965],[0.3278345343409635,-1.7582893785378915,-1.7061618410522572,-2.04367951090606,0.2753217899134286,0.07622818013105699,0.5025308402164026,1.1540485167410295,-1.6598941020589701]],[[1.403825819771889,-1.8345025438178084,-6.576217908378282,-2.1705370768658474,5.443857674077316,-2.1902107926892076],[2.8414196182240405,-3.6339053385302393,5.71479323725855,-3.764082120101646,-6.773614712699226,-2.7830972347663034],[-5.792664085664609,2.610533952638965,0.8497834970242468,3.0329508706000574,-3.3186841255183457,2.4696985817696944]]],[[[-0.13835688511324726],[1.8149800992249618],[1.8227173080758192],[2.1872620216333467],[-0.14603077008273155],[-0.1292724573457962],[-0.32968422306029393],[-1.0571183677390523],[1.7869247203209868]],[[0.6330962352954047],[-0.4850679652126507],[0.4256674852196838],[-0.5165934056543812],[-0.37273399734899837],[-0.4653960661216357]],[[-0.694058771517277],[-2.1380553190196405],[-2.2746556748036766]]]]}